## LambdaMART
## No. of trees = 1000
## No. of leaves = 10
## No. of threshold candidates = 256
## Learning rate = 0.001
## Stop early = 100

<ensemble>
	<tree id="1" weight="0.001">
		<split>
			<feature> 134 </feature>
			<threshold> 0.0 </threshold>
			<split pos="left">
				<feature> 108 </feature>
				<threshold> 13.33966 </threshold>
				<split pos="left">
					<feature> 130 </feature>
					<threshold> 355.60547 </threshold>
					<split pos="left">
						<feature> 18 </feature>
						<threshold> 17.124624 </threshold>
						<split pos="left">
							<feature> 129 </feature>
							<threshold> 2.0 </threshold>
							<split pos="left">
								<output> -0.5532202 </output>
							</split>
							<split pos="right">
								<output> -0.14200334 </output>
							</split>
						</split>
						<split pos="right">
							<output> -0.27021614 </output>
						</split>
					</split>
					<split pos="right">
						<output> -0.14362344 </output>
					</split>
				</split>
				<split pos="right">
					<feature> 109 </feature>
					<threshold> 19.084442 </threshold>
					<split pos="left">
						<feature> 18 </feature>
						<threshold> 7.0371227 </threshold>
						<split pos="left">
							<output> 1.4711542 </output>
						</split>
						<split pos="right">
							<feature> 108 </feature>
							<threshold> 21.12113 </threshold>
							<split pos="left">
								<feature> 14 </feature>
								<threshold> 2.0 </threshold>
								<split pos="left">
									<output> 1.9828966 </output>
								</split>
								<split pos="right">
									<output> 0.095282964 </output>
								</split>
							</split>
							<split pos="right">
								<output> 0.29288355 </output>
							</split>
						</split>
					</split>
					<split pos="right">
						<output> 0.5264157 </output>
					</split>
				</split>
			</split>
			<split pos="right">
				<output> 1.2064222 </output>
			</split>
		</split>
	</tree>
	<tree id="2" weight="0.001">
		<split>
			<feature> 134 </feature>
			<threshold> 0.0 </threshold>
			<split pos="left">
				<feature> 109 </feature>
				<threshold> 19.309635 </threshold>
				<split pos="left">
					<feature> 108 </feature>
					<threshold> 21.12113 </threshold>
					<split pos="left">
						<output> -0.86473703 </output>
					</split>
					<split pos="right">
						<output> 0.124666035 </output>
					</split>
				</split>
				<split pos="right">
					<output> 0.5859361 </output>
				</split>
			</split>
			<split pos="right">
				<feature> 130 </feature>
				<threshold> 62467.734 </threshold>
				<split pos="left">
					<feature> 136 </feature>
					<threshold> 0.0 </threshold>
					<split pos="left">
						<output> 0.89932054 </output>
					</split>
					<split pos="right">
						<feature> 18 </feature>
						<threshold> 17.124624 </threshold>
						<split pos="left">
							<feature> 16 </feature>
							<threshold> 7.2798553 </threshold>
							<split pos="left">
								<output> 1.1195502 </output>
							</split>
							<split pos="right">
								<output> 1.0731182 </output>
							</split>
						</split>
						<split pos="right">
							<output> 1.3628306 </output>
						</split>
					</split>
				</split>
				<split pos="right">
					<feature> 132 </feature>
					<threshold> 126.0 </threshold>
					<split pos="left">
						<feature> 14 </feature>
						<threshold> 4.0 </threshold>
						<split pos="left">
							<output> 1.5741086 </output>
						</split>
						<split pos="right">
							<output> 1.2917725 </output>
						</split>
					</split>
					<split pos="right">
						<output> 1.9542162 </output>
					</split>
				</split>
			</split>
		</split>
	</tree>
	<tree id="3" weight="0.001">
		<split>
			<feature> 134 </feature>
			<threshold> 0.0 </threshold>
			<split pos="left">
				<output> -0.6673279 </output>
			</split>
			<split pos="right">
				<feature> 130 </feature>
				<threshold> 62723.34 </threshold>
				<split pos="left">
					<feature> 136 </feature>
					<threshold> 0.0 </threshold>
					<split pos="left">
						<output> 0.9395052 </output>
					</split>
					<split pos="right">
						<feature> 18 </feature>
						<threshold> 17.124624 </threshold>
						<split pos="left">
							<output> 1.1311725 </output>
						</split>
						<split pos="right">
							<output> 1.3807203 </output>
						</split>
					</split>
				</split>
				<split pos="right">
					<feature> 14 </feature>
					<threshold> 4.0 </threshold>
					<split pos="left">
						<feature> 109 </feature>
						<threshold> 12.779038 </threshold>
						<split pos="left">
							<feature> 132 </feature>
							<threshold> 126.0 </threshold>
							<split pos="left">
								<feature> 108 </feature>
								<threshold> 21.12113 </threshold>
								<split pos="left">
									<feature> 133 </feature>
									<threshold> 1.0 </threshold>
									<split pos="left">
										<output> 1.6842246 </output>
									</split>
									<split pos="right">
										<output> 1.4377764 </output>
									</split>
								</split>
								<split pos="right">
									<output> 1.8329428 </output>
								</split>
							</split>
							<split pos="right">
								<output> 1.940103 </output>
							</split>
						</split>
						<split pos="right">
							<output> 1.8228108 </output>
						</split>
					</split>
					<split pos="right">
						<output> 1.3169476 </output>
					</split>
				</split>
			</split>
		</split>
	</tree>
</ensemble>
