## LambdaMART
## No. of trees = 1000
## No. of leaves = 10
## No. of threshold candidates = 256
## Learning rate = 1.0
## Stop early = 100

<ensemble>
	<tree id="1" weight="1.0">
		<split>
			<feature> 134 </feature>
			<threshold> 0.0 </threshold>
			<split pos="left">
				<feature> 108 </feature>
				<threshold> 13.33966 </threshold>
				<split pos="left">
					<feature> 130 </feature>
					<threshold> 355.60547 </threshold>
					<split pos="left">
						<feature> 18 </feature>
						<threshold> 17.124624 </threshold>
						<split pos="left">
							<feature> 129 </feature>
							<threshold> 2.0 </threshold>
							<split pos="left">
								<output> -0.5532202 </output>
							</split>
							<split pos="right">
								<output> -0.14200334 </output>
							</split>
						</split>
						<split pos="right">
							<output> -0.27021614 </output>
						</split>
					</split>
					<split pos="right">
						<output> -0.14362344 </output>
					</split>
				</split>
				<split pos="right">
					<feature> 109 </feature>
					<threshold> 19.084442 </threshold>
					<split pos="left">
						<feature> 18 </feature>
						<threshold> 7.0371227 </threshold>
						<split pos="left">
							<output> 1.4711542 </output>
						</split>
						<split pos="right">
							<feature> 108 </feature>
							<threshold> 21.12113 </threshold>
							<split pos="left">
								<feature> 14 </feature>
								<threshold> 2.0 </threshold>
								<split pos="left">
									<output> 1.9828966 </output>
								</split>
								<split pos="right">
									<output> 0.095282964 </output>
								</split>
							</split>
							<split pos="right">
								<output> 0.29288355 </output>
							</split>
						</split>
					</split>
					<split pos="right">
						<output> 0.5264157 </output>
					</split>
				</split>
			</split>
			<split pos="right">
				<output> 1.2064222 </output>
			</split>
		</split>
	</tree>
	<tree id="2" weight="1.0">
		<split>
			<feature> 134 </feature>
			<threshold> 0.0 </threshold>
			<split pos="left">
				<feature> 109 </feature>
				<threshold> 20.4356 </threshold>
				<split pos="left">
					<feature> 65 </feature>
					<threshold> 0.005917008 </threshold>
					<split pos="left">
						<output> -0.5460498 </output>
					</split>
					<split pos="right">
						<feature> 108 </feature>
						<threshold> 21.12113 </threshold>
						<split pos="left">
							<feature> 123 </feature>
							<threshold> -9.668865 </threshold>
							<split pos="left">
								<output> -0.25018185 </output>
							</split>
							<split pos="right">
								<output> 0.06285316 </output>
							</split>
						</split>
						<split pos="right">
							<output> 0.25481936 </output>
						</split>
					</split>
				</split>
				<split pos="right">
					<output> 0.38311377 </output>
				</split>
			</split>
			<split pos="right">
				<feature> 130 </feature>
				<threshold> 62723.34 </threshold>
				<split pos="left">
					<feature> 18 </feature>
					<threshold> 18.385563 </threshold>
					<split pos="left">
						<feature> 136 </feature>
						<threshold> 0.0 </threshold>
						<split pos="left">
							<output> -0.36216763 </output>
						</split>
						<split pos="right">
							<feature> 109 </feature>
							<threshold> 19.985214 </threshold>
							<split pos="left">
								<output> 0.036125813 </output>
							</split>
							<split pos="right">
								<output> 0.6405195 </output>
							</split>
						</split>
					</split>
					<split pos="right">
						<output> 0.417246 </output>
					</split>
				</split>
				<split pos="right">
					<output> 0.5719593 </output>
				</split>
			</split>
		</split>
	</tree>
	<tree id="3" weight="1.0">
		<split>
			<feature> 134 </feature>
			<threshold> 52908.69 </threshold>
			<split pos="left">
				<feature> 14 </feature>
				<threshold> 4.0 </threshold>
				<split pos="left">
					<feature> 134 </feature>
					<threshold> 0.0 </threshold>
					<split pos="left">
						<output> 0.36493936 </output>
					</split>
					<split pos="right">
						<output> 0.22696783 </output>
					</split>
				</split>
				<split pos="right">
					<feature> 107 </feature>
					<threshold> 12.675388 </threshold>
					<split pos="left">
						<feature> 134 </feature>
						<threshold> 0.0 </threshold>
						<split pos="left">
							<feature> 4 </feature>
							<threshold> 7.0 </threshold>
							<split pos="left">
								<feature> 11 </feature>
								<threshold> 2274.2969 </threshold>
								<split pos="left">
									<feature> 4 </feature>
									<threshold> 3.0 </threshold>
									<split pos="left">
										<feature> 109 </feature>
										<threshold> 19.985214 </threshold>
										<split pos="left">
											<output> -0.07875078 </output>
										</split>
										<split pos="right">
											<output> -0.2413387 </output>
										</split>
									</split>
									<split pos="right">
										<output> 0.31724203 </output>
									</split>
								</split>
								<split pos="right">
									<output> -0.60822767 </output>
								</split>
							</split>
							<split pos="right">
								<output> 1.109849 </output>
							</split>
						</split>
						<split pos="right">
							<output> -0.17167844 </output>
						</split>
					</split>
					<split pos="right">
						<output> 0.23640533 </output>
					</split>
				</split>
			</split>
			<split pos="right">
				<output> 0.6362503 </output>
			</split>
		</split>
	</tree>
	<tree id="4" weight="1.0">
		<split>
			<feature> 135 </feature>
			<threshold> 9175.684 </threshold>
			<split pos="left">
				<feature> 3 </feature>
				<threshold> 2.0 </threshold>
				<split pos="left">
					<feature> 129 </feature>
					<threshold> 2.0 </threshold>
					<split pos="left">
						<feature> 134 </feature>
						<threshold> 0.0 </threshold>
						<split pos="left">
							<feature> 15 </feature>
							<threshold> 54.9375 </threshold>
							<split pos="left">
								<output> 0.2860837 </output>
							</split>
							<split pos="right">
								<feature> 14 </feature>
								<threshold> 2.0 </threshold>
								<split pos="left">
									<output> 1.0998046 </output>
								</split>
								<split pos="right">
									<feature> 50 </feature>
									<threshold> 0.033592988 </threshold>
									<split pos="left">
										<output> -0.3327949 </output>
									</split>
									<split pos="right">
										<output> -0.04235548 </output>
									</split>
								</split>
							</split>
						</split>
						<split pos="right">
							<output> -0.11727355 </output>
						</split>
					</split>
					<split pos="right">
						<feature> 54 </feature>
						<threshold> 0.230769 </threshold>
						<split pos="left">
							<feature> 134 </feature>
							<threshold> 52908.69 </threshold>
							<split pos="left">
								<output> 0.087902755 </output>
							</split>
							<split pos="right">
								<output> -1.0862169 </output>
							</split>
						</split>
						<split pos="right">
							<output> 0.6914691 </output>
						</split>
					</split>
				</split>
				<split pos="right">
					<output> 0.19114304 </output>
				</split>
			</split>
			<split pos="right">
				<output> 0.43661916 </output>
			</split>
		</split>
	</tree>
	<tree id="5" weight="1.0">
		<split>
			<feature> 135 </feature>
			<threshold> 256919.22 </threshold>
			<split pos="left">
				<feature> 130 </feature>
				<threshold> 29239.023 </threshold>
				<split pos="left">
					<feature> 15 </feature>
					<threshold> 54.9375 </threshold>
					<split pos="left">
						<output> -0.40291536 </output>
					</split>
					<split pos="right">
						<feature> 4 </feature>
						<threshold> 7.0 </threshold>
						<split pos="left">
							<feature> 14 </feature>
							<threshold> 3.0 </threshold>
							<split pos="left">
								<output> 0.38578025 </output>
							</split>
							<split pos="right">
								<feature> 134 </feature>
								<threshold> 0.0 </threshold>
								<split pos="left">
									<output> -0.037583385 </output>
								</split>
								<split pos="right">
									<output> -0.08276369 </output>
								</split>
							</split>
						</split>
						<split pos="right">
							<output> 0.81193614 </output>
						</split>
					</split>
				</split>
				<split pos="right">
					<feature> 109 </feature>
					<threshold> 15.706548 </threshold>
					<split pos="left">
						<feature> 108 </feature>
						<threshold> 27.790964 </threshold>
						<split pos="left">
							<feature> 3 </feature>
							<threshold> 1.0 </threshold>
							<split pos="left">
								<output> -0.046756964 </output>
							</split>
							<split pos="right">
								<output> 0.23612739 </output>
							</split>
						</split>
						<split pos="right">
							<output> 0.73675436 </output>
						</split>
					</split>
					<split pos="right">
						<output> 0.5138191 </output>
					</split>
				</split>
			</split>
			<split pos="right">
				<output> -1.9003719 </output>
			</split>
		</split>
	</tree>
	<tree id="6" weight="1.0">
		<split>
			<feature> 133 </feature>
			<threshold> 10.0 </threshold>
			<split pos="left">
				<feature> 72 </feature>
				<threshold> 44.68489 </threshold>
				<split pos="left">
					<feature> 59 </feature>
					<threshold> 0.153846 </threshold>
					<split pos="left">
						<feature> 135 </feature>
						<threshold> 18351.367 </threshold>
						<split pos="left">
							<feature> 55 </feature>
							<threshold> 0.43490037 </threshold>
							<split pos="left">
								<feature> 134 </feature>
								<threshold> 476178.22 </threshold>
								<split pos="left">
									<feature> 110 </feature>
									<threshold> 33.82966 </threshold>
									<split pos="left">
										<feature> 50 </feature>
										<threshold> 0.6718594 </threshold>
										<split pos="left">
											<output> 0.0015781019 </output>
										</split>
										<split pos="right">
											<output> 1.4022661 </output>
										</split>
									</split>
									<split pos="right">
										<output> 0.20910864 </output>
									</split>
								</split>
								<split pos="right">
									<output> 1.193247 </output>
								</split>
							</split>
							<split pos="right">
								<output> -6.0800853 </output>
							</split>
						</split>
						<split pos="right">
							<output> -0.55301934 </output>
						</split>
					</split>
					<split pos="right">
						<output> 0.24320924 </output>
					</split>
				</split>
				<split pos="right">
					<output> 0.4974329 </output>
				</split>
			</split>
			<split pos="right">
				<feature> 134 </feature>
				<threshold> 0.0 </threshold>
				<split pos="left">
					<output> -0.08654744 </output>
				</split>
				<split pos="right">
					<output> -0.18722351 </output>
				</split>
			</split>
		</split>
	</tree>
	<tree id="7" weight="1.0">
		<split>
			<feature> 3 </feature>
			<threshold> 3.0 </threshold>
			<split pos="left">
				<feature> 48 </feature>
				<threshold> 1.5029297 </threshold>
				<split pos="left">
					<feature> 39 </feature>
					<threshold> 1.333333 </threshold>
					<split pos="left">
						<feature> 54 </feature>
						<threshold> 0.125 </threshold>
						<split pos="left">
							<feature> 134 </feature>
							<threshold> 0.0 </threshold>
							<split pos="left">
								<feature> 11 </feature>
								<threshold> 0.0 </threshold>
								<split pos="left">
									<output> 0.9475336 </output>
								</split>
								<split pos="right">
									<feature> 30 </feature>
									<threshold> 6.1679688 </threshold>
									<split pos="left">
										<feature> 49 </feature>
										<threshold> 0.428571 </threshold>
										<split pos="left">
											<feature> 115 </feature>
											<threshold> -30.038849 </threshold>
											<split pos="left">
												<output> -0.4120718 </output>
											</split>
											<split pos="right">
												<output> -0.044271987 </output>
											</split>
										</split>
										<split pos="right">
											<output> -0.9829667 </output>
										</split>
									</split>
									<split pos="right">
										<output> 0.11401167 </output>
									</split>
								</split>
							</split>
							<split pos="right">
								<output> -0.05743903 </output>
							</split>
						</split>
						<split pos="right">
							<output> 0.1584243 </output>
						</split>
					</split>
					<split pos="right">
						<output> -0.41152236 </output>
					</split>
				</split>
				<split pos="right">
					<output> -2.6001108 </output>
				</split>
			</split>
			<split pos="right">
				<output> 0.2600251 </output>
			</split>
		</split>
	</tree>
	<tree id="8" weight="1.0">
		<split>
			<feature> 11 </feature>
			<threshold> 0.0 </threshold>
			<split pos="left">
				<output> -0.33805588 </output>
			</split>
			<split pos="right">
				<feature> 129 </feature>
				<threshold> 17.0 </threshold>
				<split pos="left">
					<feature> 130 </feature>
					<threshold> 65023.79 </threshold>
					<split pos="left">
						<feature> 64 </feature>
						<threshold> 0.23403002 </threshold>
						<split pos="left">
							<feature> 107 </feature>
							<threshold> 12.675388 </threshold>
							<split pos="left">
								<feature> 127 </feature>
								<threshold> 28.941406 </threshold>
								<split pos="left">
									<feature> 108 </feature>
									<threshold> 23.344408 </threshold>
									<split pos="left">
										<feature> 11 </feature>
										<threshold> 634.6875 </threshold>
										<split pos="left">
											<output> 0.10347412 </output>
										</split>
										<split pos="right">
											<output> -0.23000872 </output>
										</split>
									</split>
									<split pos="right">
										<output> 0.37011158 </output>
									</split>
								</split>
								<split pos="right">
									<feature> 14 </feature>
									<threshold> 3.0 </threshold>
									<split pos="left">
										<output> 0.5351195 </output>
									</split>
									<split pos="right">
										<output> -0.040213354 </output>
									</split>
								</split>
							</split>
							<split pos="right">
								<output> -0.12835658 </output>
							</split>
						</split>
						<split pos="right">
							<output> -0.22120751 </output>
						</split>
					</split>
					<split pos="right">
						<output> 0.19317342 </output>
					</split>
				</split>
				<split pos="right">
					<output> 0.20482042 </output>
				</split>
			</split>
		</split>
	</tree>
	<tree id="9" weight="1.0">
		<split>
			<feature> 54 </feature>
			<threshold> 0.24 </threshold>
			<split pos="left">
				<feature> 47 </feature>
				<threshold> 0.70833313 </threshold>
				<split pos="left">
					<feature> 33 </feature>
					<threshold> 4.0 </threshold>
					<split pos="left">
						<feature> 42 </feature>
						<threshold> 8.628906 </threshold>
						<split pos="left">
							<feature> 74 </feature>
							<threshold> 5.388817 </threshold>
							<split pos="left">
								<feature> 134 </feature>
								<threshold> 52908.69 </threshold>
								<split pos="left">
									<feature> 48 </feature>
									<threshold> 0.81640625 </threshold>
									<split pos="left">
										<feature> 14 </feature>
										<threshold> 3.0 </threshold>
										<split pos="left">
											<output> -0.14323075 </output>
										</split>
										<split pos="right">
											<feature> 130 </feature>
											<threshold> 65023.79 </threshold>
											<split pos="left">
												<output> -0.05084798 </output>
											</split>
											<split pos="right">
												<output> -0.1610211 </output>
											</split>
										</split>
									</split>
									<split pos="right">
										<output> 0.1969717 </output>
									</split>
								</split>
								<split pos="right">
									<output> 0.35790473 </output>
								</split>
							</split>
							<split pos="right">
								<output> 0.045590505 </output>
							</split>
						</split>
						<split pos="right">
							<output> -0.4892993 </output>
						</split>
					</split>
					<split pos="right">
						<output> -0.5235419 </output>
					</split>
				</split>
				<split pos="right">
					<output> 0.15747668 </output>
				</split>
			</split>
			<split pos="right">
				<output> 0.19790107 </output>
			</split>
		</split>
	</tree>
	<tree id="10" weight="1.0">
		<split>
			<feature> 58 </feature>
			<threshold> 0.39453125 </threshold>
			<split pos="left">
				<feature> 87 </feature>
				<threshold> 30.812656 </threshold>
				<split pos="left">
					<feature> 27 </feature>
					<threshold> 5.0 </threshold>
					<split pos="left">
						<feature> 55 </feature>
						<threshold> 0.005917008 </threshold>
						<split pos="left">
							<output> -0.03925624 </output>
						</split>
						<split pos="right">
							<feature> 135 </feature>
							<threshold> 9175.684 </threshold>
							<split pos="left">
								<feature> 134 </feature>
								<threshold> 52908.69 </threshold>
								<split pos="left">
									<feature> 130 </feature>
									<threshold> 65279.395 </threshold>
									<split pos="left">
										<feature> 129 </feature>
										<threshold> 31.0 </threshold>
										<split pos="left">
											<feature> 101 </feature>
											<threshold> 0.99609375 </threshold>
											<split pos="left">
												<output> 0.09403676 </output>
											</split>
											<split pos="right">
												<output> -0.05493701 </output>
											</split>
										</split>
										<split pos="right">
											<output> 0.3861633 </output>
										</split>
									</split>
									<split pos="right">
										<output> 0.35162777 </output>
									</split>
								</split>
								<split pos="right">
									<output> -1.3073417 </output>
								</split>
							</split>
							<split pos="right">
								<output> 0.39295092 </output>
							</split>
						</split>
					</split>
					<split pos="right">
						<output> -3.8106349 </output>
					</split>
				</split>
				<split pos="right">
					<output> 0.30853277 </output>
				</split>
			</split>
			<split pos="right">
				<output> -0.19469945 </output>
			</split>
		</split>
	</tree>
	<tree id="11" weight="1.0">
		<split>
			<feature> 134 </feature>
			<threshold> 0.0 </threshold>
			<split pos="left">
				<feature> 108 </feature>
				<threshold> 21.12113 </threshold>
				<split pos="left">
					<feature> 27 </feature>
					<threshold> 4.0 </threshold>
					<split pos="left">
						<feature> 64 </feature>
						<threshold> 0.12545957 </threshold>
						<split pos="left">
							<feature> 110 </feature>
							<threshold> 28.361145 </threshold>
							<split pos="left">
								<feature> 123 </feature>
								<threshold> -24.490604 </threshold>
								<split pos="left">
									<output> -0.22584714 </output>
								</split>
								<split pos="right">
									<feature> 47 </feature>
									<threshold> 1.0071608 </threshold>
									<split pos="left">
										<output> 0.029074255 </output>
									</split>
									<split pos="right">
										<output> -3.4326005 </output>
									</split>
								</split>
							</split>
							<split pos="right">
								<output> 0.18852448 </output>
							</split>
						</split>
						<split pos="right">
							<output> 0.2511335 </output>
						</split>
					</split>
					<split pos="right">
						<output> 0.5846487 </output>
					</split>
				</split>
				<split pos="right">
					<output> -0.13581242 </output>
				</split>
			</split>
			<split pos="right">
				<feature> 19 </feature>
				<threshold> 9.678038 </threshold>
				<split pos="left">
					<output> -0.45123637 </output>
				</split>
				<split pos="right">
					<feature> 127 </feature>
					<threshold> 23.953125 </threshold>
					<split pos="left">
						<output> 0.13292061 </output>
					</split>
					<split pos="right">
						<output> -0.104011044 </output>
					</split>
				</split>
			</split>
		</split>
	</tree>
	<tree id="12" weight="1.0">
		<split>
			<feature> 26 </feature>
			<threshold> 36.375 </threshold>
			<split pos="left">
				<feature> 77 </feature>
				<threshold> 44.818413 </threshold>
				<split pos="left">
					<feature> 134 </feature>
					<threshold> 105817.38 </threshold>
					<split pos="left">
						<feature> 130 </feature>
						<threshold> 57100.02 </threshold>
						<split pos="left">
							<feature> 54 </feature>
							<threshold> 0.230769 </threshold>
							<split pos="left">
								<feature> 109 </feature>
								<threshold> 19.084442 </threshold>
								<split pos="left">
									<feature> 101 </feature>
									<threshold> 0.10546875 </threshold>
									<split pos="left">
										<output> 0.1399999 </output>
									</split>
									<split pos="right">
										<feature> 106 </feature>
										<threshold> 50.25439 </threshold>
										<split pos="left">
											<feature> 50 </feature>
											<threshold> 0.54420644 </threshold>
											<split pos="left">
												<output> -0.030337756 </output>
											</split>
											<split pos="right">
												<output> 0.6059167 </output>
											</split>
										</split>
										<split pos="right">
											<output> 0.28145406 </output>
										</split>
									</split>
								</split>
								<split pos="right">
									<output> -0.106330395 </output>
								</split>
							</split>
							<split pos="right">
								<output> -0.3436185 </output>
							</split>
						</split>
						<split pos="right">
							<output> 0.08423431 </output>
						</split>
					</split>
					<split pos="right">
						<output> 0.46987525 </output>
					</split>
				</split>
				<split pos="right">
					<output> -0.5570424 </output>
				</split>
			</split>
			<split pos="right">
				<output> 0.26958263 </output>
			</split>
		</split>
	</tree>
	<tree id="13" weight="1.0">
		<split>
			<feature> 54 </feature>
			<threshold> 0.24 </threshold>
			<split pos="left">
				<feature> 87 </feature>
				<threshold> 61.62532 </threshold>
				<split pos="left">
					<feature> 37 </feature>
					<threshold> 4.666667 </threshold>
					<split pos="left">
						<feature> 134 </feature>
						<threshold> 317452.16 </threshold>
						<split pos="left">
							<feature> 109 </feature>
							<threshold> 31.920444 </threshold>
							<split pos="left">
								<feature> 2 </feature>
								<threshold> 2.0 </threshold>
								<split pos="left">
									<feature> 130 </feature>
									<threshold> 65023.79 </threshold>
									<split pos="left">
										<feature> 131 </feature>
										<threshold> 65279.008 </threshold>
										<split pos="left">
											<feature> 129 </feature>
											<threshold> 17.0 </threshold>
											<split pos="left">
												<output> 3.6624222E-4 </output>
											</split>
											<split pos="right">
												<output> -0.2557194 </output>
											</split>
										</split>
										<split pos="right">
											<output> 0.12703505 </output>
										</split>
									</split>
									<split pos="right">
										<output> -0.14333108 </output>
									</split>
								</split>
								<split pos="right">
									<output> 0.14718662 </output>
								</split>
							</split>
							<split pos="right">
								<output> 0.53850764 </output>
							</split>
						</split>
						<split pos="right">
							<output> -1.4081247 </output>
						</split>
					</split>
					<split pos="right">
						<output> -0.24485399 </output>
					</split>
				</split>
				<split pos="right">
					<output> 0.31409526 </output>
				</split>
			</split>
			<split pos="right">
				<output> 0.17140454 </output>
			</split>
		</split>
	</tree>
	<tree id="14" weight="1.0">
		<split>
			<feature> 27 </feature>
			<threshold> 10.0 </threshold>
			<split pos="left">
				<feature> 127 </feature>
				<threshold> 4.0 </threshold>
				<split pos="left">
					<output> -6.1275578 </output>
				</split>
				<split pos="right">
					<feature> 127 </feature>
					<threshold> 33.929688 </threshold>
					<split pos="left">
						<feature> 77 </feature>
						<threshold> 39.21611 </threshold>
						<split pos="left">
							<feature> 108 </feature>
							<threshold> 31.125881 </threshold>
							<split pos="left">
								<feature> 129 </feature>
								<threshold> 0.0 </threshold>
								<split pos="left">
									<output> -0.039229423 </output>
								</split>
								<split pos="right">
									<output> 0.09980814 </output>
								</split>
							</split>
							<split pos="right">
								<output> 0.3755522 </output>
							</split>
						</split>
						<split pos="right">
							<output> 0.6489282 </output>
						</split>
					</split>
					<split pos="right">
						<feature> 77 </feature>
						<threshold> 58.82417 </threshold>
						<split pos="left">
							<feature> 129 </feature>
							<threshold> 88.0 </threshold>
							<split pos="left">
								<feature> 14 </feature>
								<threshold> 3.0 </threshold>
								<split pos="left">
									<output> -1.0225805 </output>
								</split>
								<split pos="right">
									<output> -0.0367268 </output>
								</split>
							</split>
							<split pos="right">
								<output> 0.8835647 </output>
							</split>
						</split>
						<split pos="right">
							<output> -0.9844375 </output>
						</split>
					</split>
				</split>
			</split>
			<split pos="right">
				<output> -0.95676666 </output>
			</split>
		</split>
	</tree>
	<tree id="15" weight="1.0">
		<split>
			<feature> 129 </feature>
			<threshold> 99.0 </threshold>
			<split pos="left">
				<feature> 133 </feature>
				<threshold> 53.0 </threshold>
				<split pos="left">
					<feature> 109 </feature>
					<threshold> 23.137917 </threshold>
					<split pos="left">
						<feature> 50 </feature>
						<threshold> 0.53748786 </threshold>
						<split pos="left">
							<feature> 77 </feature>
							<threshold> 56.023018 </threshold>
							<split pos="left">
								<feature> 131 </feature>
								<threshold> 57087.258 </threshold>
								<split pos="left">
									<feature> 134 </feature>
									<threshold> 370360.84 </threshold>
									<split pos="left">
										<feature> 87 </feature>
										<threshold> 61.62532 </threshold>
										<split pos="left">
											<feature> 92 </feature>
											<threshold> 2903.3835 </threshold>
											<split pos="left">
												<output> 0.03565313 </output>
											</split>
											<split pos="right">
												<output> 1.0589586 </output>
											</split>
										</split>
										<split pos="right">
											<output> -2.6537693 </output>
										</split>
									</split>
									<split pos="right">
										<output> 0.92986315 </output>
									</split>
								</split>
								<split pos="right">
									<output> -0.06684571 </output>
								</split>
							</split>
							<split pos="right">
								<output> 0.31273717 </output>
							</split>
						</split>
						<split pos="right">
							<output> 0.62781006 </output>
						</split>
					</split>
					<split pos="right">
						<output> 0.20325045 </output>
					</split>
				</split>
				<split pos="right">
					<output> -0.11844808 </output>
				</split>
			</split>
			<split pos="right">
				<output> -1.3924679 </output>
			</split>
		</split>
	</tree>
	<tree id="16" weight="1.0">
		<split>
			<feature> 50 </feature>
			<threshold> 0.550925 </threshold>
			<split pos="left">
				<feature> 4 </feature>
				<threshold> 7.0 </threshold>
				<split pos="left">
					<feature> 72 </feature>
					<threshold> 187.67657 </threshold>
					<split pos="left">
						<feature> 87 </feature>
						<threshold> 75.63106 </threshold>
						<split pos="left">
							<feature> 26 </feature>
							<threshold> 6.0625 </threshold>
							<split pos="left">
								<feature> 27 </feature>
								<threshold> 9.0 </threshold>
								<split pos="left">
									<feature> 109 </feature>
									<threshold> 19.084442 </threshold>
									<split pos="left">
										<feature> 134 </feature>
										<threshold> 0.0 </threshold>
										<split pos="left">
											<feature> 50 </feature>
											<threshold> 0.53748786 </threshold>
											<split pos="left">
												<output> -6.6569727E-4 </output>
											</split>
											<split pos="right">
												<output> 0.79843116 </output>
											</split>
										</split>
										<split pos="right">
											<output> -0.07594662 </output>
										</split>
									</split>
									<split pos="right">
										<output> -0.16577323 </output>
									</split>
								</split>
								<split pos="right">
									<output> 1.1716856 </output>
								</split>
							</split>
							<split pos="right">
								<output> 0.060165327 </output>
							</split>
						</split>
						<split pos="right">
							<output> -0.82258403 </output>
						</split>
					</split>
					<split pos="right">
						<output> 0.92481863 </output>
					</split>
				</split>
				<split pos="right">
					<output> -1.8110484 </output>
				</split>
			</split>
			<split pos="right">
				<output> -1.420428 </output>
			</split>
		</split>
	</tree>
	<tree id="17" weight="1.0">
		<split>
			<feature> 37 </feature>
			<threshold> 52.0 </threshold>
			<split pos="left">
				<feature> 71 </feature>
				<threshold> 678.6101 </threshold>
				<split pos="left">
					<feature> 77 </feature>
					<threshold> 67.227615 </threshold>
					<split pos="left">
						<feature> 4 </feature>
						<threshold> 1.0 </threshold>
						<split pos="left">
							<feature> 109 </feature>
							<threshold> 24.714268 </threshold>
							<split pos="left">
								<feature> 67 </feature>
								<threshold> 0.078125 </threshold>
								<split pos="left">
									<feature> 92 </feature>
									<threshold> 13936.241 </threshold>
									<split pos="left">
										<feature> 22 </feature>
										<threshold> 28.0 </threshold>
										<split pos="left">
											<feature> 48 </feature>
											<threshold> 0.16699219 </threshold>
											<split pos="left">
												<output> -0.05865021 </output>
											</split>
											<split pos="right">
												<output> 0.028368423 </output>
											</split>
										</split>
										<split pos="right">
											<output> -2.736094 </output>
										</split>
									</split>
									<split pos="right">
										<output> 1.1396587 </output>
									</split>
								</split>
								<split pos="right">
									<output> -0.29304183 </output>
								</split>
							</split>
							<split pos="right">
								<output> 0.42793542 </output>
							</split>
						</split>
						<split pos="right">
							<output> 0.06871469 </output>
						</split>
					</split>
					<split pos="right">
						<output> 0.46811652 </output>
					</split>
				</split>
				<split pos="right">
					<output> -0.4973513 </output>
				</split>
			</split>
			<split pos="right">
				<output> -7.4634576 </output>
			</split>
		</split>
	</tree>
	<tree id="18" weight="1.0">
		<split>
			<feature> 133 </feature>
			<threshold> 1.0 </threshold>
			<split pos="left">
				<output> 0.09479703 </output>
			</split>
			<split pos="right">
				<feature> 87 </feature>
				<threshold> 30.812656 </threshold>
				<split pos="left">
					<feature> 11 </feature>
					<threshold> 52.890625 </threshold>
					<split pos="left">
						<output> 0.15201521 </output>
					</split>
					<split pos="right">
						<feature> 107 </feature>
						<threshold> 12.675388 </threshold>
						<split pos="left">
							<feature> 60 </feature>
							<threshold> 0.38460577 </threshold>
							<split pos="left">
								<feature> 46 </feature>
								<threshold> 0.0625 </threshold>
								<split pos="left">
									<feature> 37 </feature>
									<threshold> 4.333333 </threshold>
									<split pos="left">
										<feature> 130 </feature>
										<threshold> 65279.395 </threshold>
										<split pos="left">
											<feature> 135 </feature>
											<threshold> 45878.418 </threshold>
											<split pos="left">
												<output> -0.031768113 </output>
											</split>
											<split pos="right">
												<output> -1.3654112 </output>
											</split>
										</split>
										<split pos="right">
											<output> -0.19920388 </output>
										</split>
									</split>
									<split pos="right">
										<output> -5.733292 </output>
									</split>
								</split>
								<split pos="right">
									<output> 0.0560463 </output>
								</split>
							</split>
							<split pos="right">
								<output> -4.185587 </output>
							</split>
						</split>
						<split pos="right">
							<output> -0.11579278 </output>
						</split>
					</split>
				</split>
				<split pos="right">
					<output> -0.4541976 </output>
				</split>
			</split>
		</split>
	</tree>
	<tree id="19" weight="1.0">
		<split>
			<feature> 87 </feature>
			<threshold> 30.812656 </threshold>
			<split pos="left">
				<feature> 65 </feature>
				<threshold> 0.2662655 </threshold>
				<split pos="left">
					<feature> 134 </feature>
					<threshold> 105817.38 </threshold>
					<split pos="left">
						<feature> 47 </feature>
						<threshold> 0.7415362 </threshold>
						<split pos="left">
							<feature> 130 </feature>
							<threshold> 64512.58 </threshold>
							<split pos="left">
								<feature> 65 </feature>
								<threshold> 0.076921105 </threshold>
								<split pos="left">
									<feature> 4 </feature>
									<threshold> 3.0 </threshold>
									<split pos="left">
										<feature> 135 </feature>
										<threshold> 91756.84 </threshold>
										<split pos="left">
											<feature> 129 </feature>
											<threshold> 88.0 </threshold>
											<split pos="left">
												<output> -0.007789083 </output>
											</split>
											<split pos="right">
												<output> 0.5027606 </output>
											</split>
										</split>
										<split pos="right">
											<output> -11.697883 </output>
										</split>
									</split>
									<split pos="right">
										<output> -0.23310395 </output>
									</split>
								</split>
								<split pos="right">
									<output> -0.1906015 </output>
								</split>
							</split>
							<split pos="right">
								<output> 0.1140656 </output>
							</split>
						</split>
						<split pos="right">
							<output> 0.115335315 </output>
						</split>
					</split>
					<split pos="right">
						<output> 0.39990827 </output>
					</split>
				</split>
				<split pos="right">
					<output> -0.76201004 </output>
				</split>
			</split>
			<split pos="right">
				<output> 0.25731516 </output>
			</split>
		</split>
	</tree>
	<tree id="20" weight="1.0">
		<split>
			<feature> 50 </feature>
			<threshold> 0.34936708 </threshold>
			<split pos="left">
				<feature> 72 </feature>
				<threshold> 312.7943 </threshold>
				<split pos="left">
					<feature> 92 </feature>
					<threshold> 19162.328 </threshold>
					<split pos="left">
						<feature> 77 </feature>
						<threshold> 64.42647 </threshold>
						<split pos="left">
							<feature> 47 </feature>
							<threshold> 1.173177 </threshold>
							<split pos="left">
								<feature> 14 </feature>
								<threshold> 13.0 </threshold>
								<split pos="left">
									<feature> 69 </feature>
									<threshold> 0.011249999 </threshold>
									<split pos="left">
										<feature> 115 </feature>
										<threshold> -39.050568 </threshold>
										<split pos="left">
											<output> -0.48075595 </output>
										</split>
										<split pos="right">
											<feature> 116 </feature>
											<threshold> -45.691063 </threshold>
											<split pos="left">
												<output> 0.9570028 </output>
											</split>
											<split pos="right">
												<output> -0.0030255893 </output>
											</split>
										</split>
									</split>
									<split pos="right">
										<output> -0.14841709 </output>
									</split>
								</split>
								<split pos="right">
									<output> 0.17077662 </output>
								</split>
							</split>
							<split pos="right">
								<output> -1.84616 </output>
							</split>
						</split>
						<split pos="right">
							<output> -0.44493684 </output>
						</split>
					</split>
					<split pos="right">
						<output> -4.2311416 </output>
					</split>
				</split>
				<split pos="right">
					<output> 0.89599836 </output>
				</split>
			</split>
			<split pos="right">
				<output> 0.5018852 </output>
			</split>
		</split>
	</tree>
	<tree id="21" weight="1.0">
		<split>
			<feature> 72 </feature>
			<threshold> 536.21875 </threshold>
			<split pos="left">
				<feature> 92 </feature>
				<threshold> 13936.241 </threshold>
				<split pos="left">
					<feature> 50 </feature>
					<threshold> 0.3560857 </threshold>
					<split pos="left">
						<feature> 72 </feature>
						<threshold> 420.0381 </threshold>
						<split pos="left">
							<feature> 37 </feature>
							<threshold> 46.0 </threshold>
							<split pos="left">
								<feature> 2 </feature>
								<threshold> 3.0 </threshold>
								<split pos="left">
									<feature> 49 </feature>
									<threshold> 0.4375 </threshold>
									<split pos="left">
										<feature> 49 </feature>
										<threshold> 0.411765 </threshold>
										<split pos="left">
											<feature> 55 </feature>
											<threshold> 0.24259746 </threshold>
											<split pos="left">
												<output> -0.0010273028 </output>
											</split>
											<split pos="right">
												<output> 0.4012359 </output>
											</split>
										</split>
										<split pos="right">
											<output> -0.5075005 </output>
										</split>
									</split>
									<split pos="right">
										<output> 0.21792004 </output>
									</split>
								</split>
								<split pos="right">
									<output> 0.24714732 </output>
								</split>
							</split>
							<split pos="right">
								<output> -6.321572 </output>
							</split>
						</split>
						<split pos="right">
							<output> 1.2735718 </output>
						</split>
					</split>
					<split pos="right">
						<output> -0.24882643 </output>
					</split>
				</split>
				<split pos="right">
					<output> 0.86361164 </output>
				</split>
			</split>
			<split pos="right">
				<output> -3.2883441 </output>
			</split>
		</split>
	</tree>
	<tree id="22" weight="1.0">
		<split>
			<feature> 63 </feature>
			<threshold> 0.6015625 </threshold>
			<split pos="left">
				<feature> 48 </feature>
				<threshold> 0.7421875 </threshold>
				<split pos="left">
					<feature> 54 </feature>
					<threshold> 0.176471 </threshold>
					<split pos="left">
						<feature> 64 </feature>
						<threshold> 0.14717366 </threshold>
						<split pos="left">
							<feature> 77 </feature>
							<threshold> 30.812656 </threshold>
							<split pos="left">
								<feature> 129 </feature>
								<threshold> 33.0 </threshold>
								<split pos="left">
									<feature> 134 </feature>
									<threshold> 105817.38 </threshold>
									<split pos="left">
										<feature> 10 </feature>
										<threshold> 0.8 </threshold>
										<split pos="left">
											<output> 0.062670894 </output>
										</split>
										<split pos="right">
											<feature> 129 </feature>
											<threshold> 10.0 </threshold>
											<split pos="left">
												<output> -0.037021752 </output>
											</split>
											<split pos="right">
												<output> 0.10416056 </output>
											</split>
										</split>
									</split>
									<split pos="right">
										<output> 0.4340269 </output>
									</split>
								</split>
								<split pos="right">
									<output> -0.15564631 </output>
								</split>
							</split>
							<split pos="right">
								<output> -0.36822963 </output>
							</split>
						</split>
						<split pos="right">
							<output> 0.14697532 </output>
						</split>
					</split>
					<split pos="right">
						<output> -0.08967169 </output>
					</split>
				</split>
				<split pos="right">
					<output> 0.11343858 </output>
				</split>
			</split>
			<split pos="right">
				<output> -0.365921 </output>
			</split>
		</split>
	</tree>
	<tree id="23" weight="1.0">
		<split>
			<feature> 37 </feature>
			<threshold> 6.0 </threshold>
			<split pos="left">
				<feature> 107 </feature>
				<threshold> 30.536179 </threshold>
				<split pos="left">
					<feature> 49 </feature>
					<threshold> 0.315789 </threshold>
					<split pos="left">
						<feature> 109 </feature>
						<threshold> 22.462337 </threshold>
						<split pos="left">
							<feature> 26 </feature>
							<threshold> 30.3125 </threshold>
							<split pos="left">
								<feature> 65 </feature>
								<threshold> 0.24555597 </threshold>
								<split pos="left">
									<feature> 65 </feature>
									<threshold> 0.24259746 </threshold>
									<split pos="left">
										<feature> 50 </feature>
										<threshold> 0.62482935 </threshold>
										<split pos="left">
											<feature> 72 </feature>
											<threshold> 187.67657 </threshold>
											<split pos="left">
												<output> -0.0028521116 </output>
											</split>
											<split pos="right">
												<output> -1.5385252 </output>
											</split>
										</split>
										<split pos="right">
											<output> 0.95929646 </output>
										</split>
									</split>
									<split pos="right">
										<output> 1.1854117 </output>
									</split>
								</split>
								<split pos="right">
									<output> -0.33873755 </output>
								</split>
							</split>
							<split pos="right">
								<output> 0.106740184 </output>
							</split>
						</split>
						<split pos="right">
							<output> 0.22907741 </output>
						</split>
					</split>
					<split pos="right">
						<output> -0.08539839 </output>
					</split>
				</split>
				<split pos="right">
					<output> -0.39905274 </output>
				</split>
			</split>
			<split pos="right">
				<output> 0.32663855 </output>
			</split>
		</split>
	</tree>
	<tree id="24" weight="1.0">
		<split>
			<feature> 49 </feature>
			<threshold> 0.37037 </threshold>
			<split pos="left">
				<feature> 49 </feature>
				<threshold> 0.3 </threshold>
				<split pos="left">
					<feature> 30 </feature>
					<threshold> 86.35156 </threshold>
					<split pos="left">
						<feature> 127 </feature>
						<threshold> 18.964844 </threshold>
						<split pos="left">
							<output> 0.05878343 </output>
						</split>
						<split pos="right">
							<feature> 64 </feature>
							<threshold> 0.24126805 </threshold>
							<split pos="left">
								<feature> 129 </feature>
								<threshold> 39.0 </threshold>
								<split pos="left">
									<feature> 42 </feature>
									<threshold> 43.14453 </threshold>
									<split pos="left">
										<feature> 50 </feature>
										<threshold> 0.65842223 </threshold>
										<split pos="left">
											<feature> 90 </feature>
											<threshold> -184.60461 </threshold>
											<split pos="left">
												<output> 1.3366121 </output>
											</split>
											<split pos="right">
												<output> -0.0036171142 </output>
											</split>
										</split>
										<split pos="right">
											<output> -2.6662877 </output>
										</split>
									</split>
									<split pos="right">
										<output> -1.4441171 </output>
									</split>
								</split>
								<split pos="right">
									<output> 0.16306879 </output>
								</split>
							</split>
							<split pos="right">
								<output> -0.75582117 </output>
							</split>
						</split>
					</split>
					<split pos="right">
						<output> -0.4014594 </output>
					</split>
				</split>
				<split pos="right">
					<output> -0.14640136 </output>
				</split>
			</split>
			<split pos="right">
				<output> 0.14103098 </output>
			</split>
		</split>
	</tree>
	<tree id="25" weight="1.0">
		<split>
			<feature> 54 </feature>
			<threshold> 0.24 </threshold>
			<split pos="left">
				<feature> 92 </feature>
				<threshold> 6968.1206 </threshold>
				<split pos="left">
					<feature> 49 </feature>
					<threshold> 0.588235 </threshold>
					<split pos="left">
						<feature> 127 </feature>
						<threshold> 18.964844 </threshold>
						<split pos="left">
							<output> -0.0832771 </output>
						</split>
						<split pos="right">
							<feature> 136 </feature>
							<threshold> 0.0 </threshold>
							<split pos="left">
								<feature> 22 </feature>
								<threshold> 10.0 </threshold>
								<split pos="left">
									<feature> 92 </feature>
									<threshold> 1742.03 </threshold>
									<split pos="left">
										<feature> 134 </feature>
										<threshold> 0.0 </threshold>
										<split pos="left">
											<feature> 14 </feature>
											<threshold> 4.0 </threshold>
											<split pos="left">
												<output> 0.1699883 </output>
											</split>
											<split pos="right">
												<output> -0.030009145 </output>
											</split>
										</split>
										<split pos="right">
											<output> -0.20405637 </output>
										</split>
									</split>
									<split pos="right">
										<output> 1.1750413 </output>
									</split>
								</split>
								<split pos="right">
									<output> -0.54808503 </output>
								</split>
							</split>
							<split pos="right">
								<output> 0.051501352 </output>
							</split>
						</split>
					</split>
					<split pos="right">
						<output> -0.6384665 </output>
					</split>
				</split>
				<split pos="right">
					<output> 1.0770528 </output>
				</split>
			</split>
			<split pos="right">
				<output> 0.17498451 </output>
			</split>
		</split>
	</tree>
	<tree id="26" weight="1.0">
		<split>
			<feature> 49 </feature>
			<threshold> 0.454545 </threshold>
			<split pos="left">
				<feature> 22 </feature>
				<threshold> 11.0 </threshold>
				<split pos="left">
					<feature> 126 </feature>
					<threshold> 1.0 </threshold>
					<split pos="left">
						<feature> 14 </feature>
						<threshold> 5.0 </threshold>
						<split pos="left">
							<feature> 94 </feature>
							<threshold> 33.530308 </threshold>
							<split pos="left">
								<output> -0.100053005 </output>
							</split>
							<split pos="right">
								<output> 0.6375314 </output>
							</split>
						</split>
						<split pos="right">
							<output> 0.6786128 </output>
						</split>
					</split>
					<split pos="right">
						<feature> 14 </feature>
						<threshold> 4.0 </threshold>
						<split pos="left">
							<output> 0.29044357 </output>
						</split>
						<split pos="right">
							<feature> 119 </feature>
							<threshold> -6.9325275 </threshold>
							<split pos="left">
								<feature> 129 </feature>
								<threshold> 70.0 </threshold>
								<split pos="left">
									<feature> 35 </feature>
									<threshold> 26.148438 </threshold>
									<split pos="left">
										<output> -0.036838457 </output>
									</split>
									<split pos="right">
										<output> 0.05336049 </output>
									</split>
								</split>
								<split pos="right">
									<output> -0.6454185 </output>
								</split>
							</split>
							<split pos="right">
								<output> 0.23774329 </output>
							</split>
						</split>
					</split>
				</split>
				<split pos="right">
					<output> 0.37984043 </output>
				</split>
			</split>
			<split pos="right">
				<output> -0.2645375 </output>
			</split>
		</split>
	</tree>
	<tree id="27" weight="1.0">
		<split>
			<feature> 134 </feature>
			<threshold> 0.0 </threshold>
			<split pos="left">
				<feature> 26 </feature>
				<threshold> 36.375 </threshold>
				<split pos="left">
					<feature> 129 </feature>
					<threshold> 154.0 </threshold>
					<split pos="left">
						<feature> 27 </feature>
						<threshold> 4.0 </threshold>
						<split pos="left">
							<feature> 109 </feature>
							<threshold> 41.37855 </threshold>
							<split pos="left">
								<feature> 128 </feature>
								<threshold> 2.01725216E8 </threshold>
								<split pos="left">
									<feature> 50 </feature>
									<threshold> 0.54420644 </threshold>
									<split pos="left">
										<feature> 132 </feature>
										<threshold> 112.0 </threshold>
										<split pos="left">
											<feature> 60 </feature>
											<threshold> 0.24851447 </threshold>
											<split pos="left">
												<output> -0.0024100903 </output>
											</split>
											<split pos="right">
												<output> 0.3112502 </output>
											</split>
										</split>
										<split pos="right">
											<output> -0.21225451 </output>
										</split>
									</split>
									<split pos="right">
										<output> 0.61181134 </output>
									</split>
								</split>
								<split pos="right">
									<output> -3.0843346 </output>
								</split>
							</split>
							<split pos="right">
								<output> 0.9578484 </output>
							</split>
						</split>
						<split pos="right">
							<output> 0.30644336 </output>
						</split>
					</split>
					<split pos="right">
						<output> 1.1712804 </output>
					</split>
				</split>
				<split pos="right">
					<output> -0.15600394 </output>
				</split>
			</split>
			<split pos="right">
				<output> 0.044281658 </output>
			</split>
		</split>
	</tree>
	<tree id="28" weight="1.0">
		<split>
			<feature> 37 </feature>
			<threshold> 5.5 </threshold>
			<split pos="left">
				<feature> 49 </feature>
				<threshold> 0.666667 </threshold>
				<split pos="left">
					<feature> 135 </feature>
					<threshold> 82581.16 </threshold>
					<split pos="left">
						<feature> 135 </feature>
						<threshold> 73405.47 </threshold>
						<split pos="left">
							<feature> 134 </feature>
							<threshold> 317452.16 </threshold>
							<split pos="left">
								<feature> 129 </feature>
								<threshold> 78.0 </threshold>
								<split pos="left">
									<feature> 77 </feature>
									<threshold> 58.82417 </threshold>
									<split pos="left">
										<feature> 27 </feature>
										<threshold> 1.0 </threshold>
										<split pos="left">
											<feature> 37 </feature>
											<threshold> 4.4 </threshold>
											<split pos="left">
												<output> -0.001995273 </output>
											</split>
											<split pos="right">
												<output> -1.3605623 </output>
											</split>
										</split>
										<split pos="right">
											<output> 0.08954792 </output>
										</split>
									</split>
									<split pos="right">
										<output> -2.3154936 </output>
									</split>
								</split>
								<split pos="right">
									<output> 0.46945387 </output>
								</split>
							</split>
							<split pos="right">
								<output> -1.3790314 </output>
							</split>
						</split>
						<split pos="right">
							<output> -2.3626745 </output>
						</split>
					</split>
					<split pos="right">
						<output> 0.6830542 </output>
					</split>
				</split>
				<split pos="right">
					<output> 0.9080868 </output>
				</split>
			</split>
			<split pos="right">
				<output> -0.2576874 </output>
			</split>
		</split>
	</tree>
	<tree id="29" weight="1.0">
		<split>
			<feature> 134 </feature>
			<threshold> 158726.08 </threshold>
			<split pos="left">
				<feature> 82 </feature>
				<threshold> 57.230923 </threshold>
				<split pos="left">
					<feature> 77 </feature>
					<threshold> 53.221867 </threshold>
					<split pos="left">
						<feature> 59 </feature>
						<threshold> 0.130435 </threshold>
						<split pos="left">
							<feature> 49 </feature>
							<threshold> 0.642857 </threshold>
							<split pos="left">
								<feature> 108 </feature>
								<threshold> 5.5581923 </threshold>
								<split pos="left">
									<output> -0.052804023 </output>
								</split>
								<split pos="right">
									<feature> 6 </feature>
									<threshold> 0.555556 </threshold>
									<split pos="left">
										<output> 0.26816073 </output>
									</split>
									<split pos="right">
										<feature> 135 </feature>
										<threshold> 27527.05 </threshold>
										<split pos="left">
											<feature> 37 </feature>
											<threshold> 3.75 </threshold>
											<split pos="left">
												<output> 0.019104961 </output>
											</split>
											<split pos="right">
												<output> -0.52133286 </output>
											</split>
										</split>
										<split pos="right">
											<output> 0.55501366 </output>
										</split>
									</split>
								</split>
							</split>
							<split pos="right">
								<output> 0.7434329 </output>
							</split>
						</split>
						<split pos="right">
							<output> -0.04213461 </output>
						</split>
					</split>
					<split pos="right">
						<output> -0.8597679 </output>
					</split>
				</split>
				<split pos="right">
					<output> 0.2655316 </output>
				</split>
			</split>
			<split pos="right">
				<output> 0.6892032 </output>
			</split>
		</split>
	</tree>
	<tree id="30" weight="1.0">
		<split>
			<feature> 49 </feature>
			<threshold> 0.375 </threshold>
			<split pos="left">
				<feature> 77 </feature>
				<threshold> 274.51254 </threshold>
				<split pos="left">
					<feature> 56 </feature>
					<threshold> 0.046875 </threshold>
					<split pos="left">
						<feature> 50 </feature>
						<threshold> 0.5845179 </threshold>
						<split pos="left">
							<feature> 40 </feature>
							<threshold> 52.453125 </threshold>
							<split pos="left">
								<feature> 134 </feature>
								<threshold> 2169257.5 </threshold>
								<split pos="left">
									<feature> 77 </feature>
									<threshold> 67.227615 </threshold>
									<split pos="left">
										<feature> 27 </feature>
										<threshold> 9.0 </threshold>
										<split pos="left">
											<feature> 60 </feature>
											<threshold> 0.4023568 </threshold>
											<split pos="left">
												<output> 0.0103660915 </output>
											</split>
											<split pos="right">
												<output> -7.852864 </output>
											</split>
										</split>
										<split pos="right">
											<output> 1.1732075 </output>
										</split>
									</split>
									<split pos="right">
										<output> -1.1400747 </output>
									</split>
								</split>
								<split pos="right">
									<output> 1.0987924 </output>
								</split>
							</split>
							<split pos="right">
								<output> 0.30645746 </output>
							</split>
						</split>
						<split pos="right">
							<output> 1.3739346 </output>
						</split>
					</split>
					<split pos="right">
						<output> -0.05308458 </output>
					</split>
				</split>
				<split pos="right">
					<output> -2.9124684 </output>
				</split>
			</split>
			<split pos="right">
				<output> 0.14646304 </output>
			</split>
		</split>
	</tree>
	<tree id="31" weight="1.0">
		<split>
			<feature> 77 </feature>
			<threshold> 47.619564 </threshold>
			<split pos="left">
				<feature> 77 </feature>
				<threshold> 44.818413 </threshold>
				<split pos="left">
					<feature> 134 </feature>
					<threshold> 105817.38 </threshold>
					<split pos="left">
						<feature> 87 </feature>
						<threshold> 56.023018 </threshold>
						<split pos="left">
							<feature> 87 </feature>
							<threshold> 50.420715 </threshold>
							<split pos="left">
								<feature> 109 </feature>
								<threshold> 44.531254 </threshold>
								<split pos="left">
									<feature> 58 </feature>
									<threshold> 0.546875 </threshold>
									<split pos="left">
										<feature> 58 </feature>
										<threshold> 0.24609375 </threshold>
										<split pos="left">
											<feature> 87 </feature>
											<threshold> 30.812656 </threshold>
											<split pos="left">
												<output> 0.011076084 </output>
											</split>
											<split pos="right">
												<output> 0.19402766 </output>
											</split>
										</split>
										<split pos="right">
											<output> -0.040796824 </output>
										</split>
									</split>
									<split pos="right">
										<output> 0.26512071 </output>
									</split>
								</split>
								<split pos="right">
									<output> -1.9216675 </output>
								</split>
							</split>
							<split pos="right">
								<output> 0.5691978 </output>
							</split>
						</split>
						<split pos="right">
							<output> -0.8541307 </output>
						</split>
					</split>
					<split pos="right">
						<output> -0.39576882 </output>
					</split>
				</split>
				<split pos="right">
					<output> -0.5227209 </output>
				</split>
			</split>
			<split pos="right">
				<output> 0.21446428 </output>
			</split>
		</split>
	</tree>
	<tree id="32" weight="1.0">
		<split>
			<feature> 82 </feature>
			<threshold> 57.230923 </threshold>
			<split pos="left">
				<feature> 72 </feature>
				<threshold> 125.117714 </threshold>
				<split pos="left">
					<feature> 68 </feature>
					<threshold> 0.064453125 </threshold>
					<split pos="left">
						<feature> 115 </feature>
						<threshold> -21.02713 </threshold>
						<split pos="left">
							<output> -0.10182608 </output>
						</split>
						<split pos="right">
							<feature> 22 </feature>
							<threshold> 8.0 </threshold>
							<split pos="left">
								<feature> 77 </feature>
								<threshold> 30.812656 </threshold>
								<split pos="left">
									<feature> 116 </feature>
									<threshold> -21.757427 </threshold>
									<split pos="left">
										<output> 0.1246544 </output>
									</split>
									<split pos="right">
										<feature> 2 </feature>
										<threshold> 4.0 </threshold>
										<split pos="left">
											<feature> 72 </feature>
											<threshold> 71.49583 </threshold>
											<split pos="left">
												<output> 0.005754982 </output>
											</split>
											<split pos="right">
												<output> -1.0000978 </output>
											</split>
										</split>
										<split pos="right">
											<output> -6.1980553 </output>
										</split>
									</split>
								</split>
								<split pos="right">
									<output> -0.17667417 </output>
								</split>
							</split>
							<split pos="right">
								<output> 0.24024898 </output>
							</split>
						</split>
					</split>
					<split pos="right">
						<output> -0.30317724 </output>
					</split>
				</split>
				<split pos="right">
					<output> 0.95862824 </output>
				</split>
			</split>
			<split pos="right">
				<output> -0.2444078 </output>
			</split>
		</split>
	</tree>
	<tree id="33" weight="1.0">
		<split>
			<feature> 87 </feature>
			<threshold> 44.818413 </threshold>
			<split pos="left">
				<feature> 4 </feature>
				<threshold> 3.0 </threshold>
				<split pos="left">
					<feature> 134 </feature>
					<threshold> 211634.77 </threshold>
					<split pos="left">
						<feature> 12 </feature>
						<threshold> 0.0 </threshold>
						<split pos="left">
							<feature> 129 </feature>
							<threshold> 0.0 </threshold>
							<split pos="left">
								<feature> 134 </feature>
								<threshold> 158726.08 </threshold>
								<split pos="left">
									<feature> 54 </feature>
									<threshold> 0.130435 </threshold>
									<split pos="left">
										<output> -0.0021706286 </output>
									</split>
									<split pos="right">
										<output> -0.16269688 </output>
									</split>
								</split>
								<split pos="right">
									<output> -2.4616754 </output>
								</split>
							</split>
							<split pos="right">
								<feature> 108 </feature>
								<threshold> 16.674574 </threshold>
								<split pos="left">
									<output> 0.014409416 </output>
								</split>
								<split pos="right">
									<output> 0.14330857 </output>
								</split>
							</split>
						</split>
						<split pos="right">
							<feature> 14 </feature>
							<threshold> 4.0 </threshold>
							<split pos="left">
								<output> -2.1471832 </output>
							</split>
							<split pos="right">
								<output> -0.027855067 </output>
							</split>
						</split>
					</split>
					<split pos="right">
						<output> 0.56380796 </output>
					</split>
				</split>
				<split pos="right">
					<output> -0.17543465 </output>
				</split>
			</split>
			<split pos="right">
				<output> 0.26378542 </output>
			</split>
		</split>
	</tree>
	<tree id="34" weight="1.0">
		<split>
			<feature> 77 </feature>
			<threshold> 50.420715 </threshold>
			<split pos="left">
				<feature> 82 </feature>
				<threshold> 283.1427 </threshold>
				<split pos="left">
					<feature> 129 </feature>
					<threshold> 2.0 </threshold>
					<split pos="left">
						<feature> 130 </feature>
						<threshold> 65279.395 </threshold>
						<split pos="left">
							<feature> 135 </feature>
							<threshold> 9175.684 </threshold>
							<split pos="left">
								<feature> 67 </feature>
								<threshold> 0.0 </threshold>
								<split pos="left">
									<feature> 50 </feature>
									<threshold> 0.033592988 </threshold>
									<split pos="left">
										<output> 0.0830683 </output>
									</split>
									<split pos="right">
										<output> -0.039438017 </output>
									</split>
								</split>
								<split pos="right">
									<output> 0.18122137 </output>
								</split>
							</split>
							<split pos="right">
								<output> 0.5768242 </output>
							</split>
						</split>
						<split pos="right">
							<output> 0.2858685 </output>
						</split>
					</split>
					<split pos="right">
						<feature> 130 </feature>
						<threshold> 65023.79 </threshold>
						<split pos="left">
							<feature> 126 </feature>
							<threshold> 1.0 </threshold>
							<split pos="left">
								<output> 0.14106421 </output>
							</split>
							<split pos="right">
								<output> -0.044679496 </output>
							</split>
						</split>
						<split pos="right">
							<output> -0.17921862 </output>
						</split>
					</split>
				</split>
				<split pos="right">
					<output> 0.8959572 </output>
				</split>
			</split>
			<split pos="right">
				<output> -0.30031118 </output>
			</split>
		</split>
	</tree>
	<tree id="35" weight="1.0">
		<split>
			<feature> 126 </feature>
			<threshold> 1.0 </threshold>
			<split pos="left">
				<feature> 7 </feature>
				<threshold> 0.666667 </threshold>
				<split pos="left">
					<feature> 110 </feature>
					<threshold> 22.892632 </threshold>
					<split pos="left">
						<output> -0.12285148 </output>
					</split>
					<split pos="right">
						<output> 0.07371208 </output>
					</split>
				</split>
				<split pos="right">
					<output> 0.64445096 </output>
				</split>
			</split>
			<split pos="right">
				<feature> 127 </feature>
				<threshold> 18.964844 </threshold>
				<split pos="left">
					<output> 0.17931102 </output>
				</split>
				<split pos="right">
					<feature> 133 </feature>
					<threshold> 10.0 </threshold>
					<split pos="left">
						<feature> 37 </feature>
						<threshold> 3.666667 </threshold>
						<split pos="left">
							<feature> 72 </feature>
							<threshold> 125.117714 </threshold>
							<split pos="left">
								<feature> 22 </feature>
								<threshold> 7.0 </threshold>
								<split pos="left">
									<feature> 77 </feature>
									<threshold> 42.01726 </threshold>
									<split pos="left">
										<output> -0.0212322 </output>
									</split>
									<split pos="right">
										<output> -1.6213412 </output>
									</split>
								</split>
								<split pos="right">
									<output> -0.32463095 </output>
								</split>
							</split>
							<split pos="right">
								<output> -5.144799 </output>
							</split>
						</split>
						<split pos="right">
							<output> 0.1745782 </output>
						</split>
					</split>
					<split pos="right">
						<output> 0.06677858 </output>
					</split>
				</split>
			</split>
		</split>
	</tree>
	<tree id="36" weight="1.0">
		<split>
			<feature> 27 </feature>
			<threshold> 3.0 </threshold>
			<split pos="left">
				<feature> 133 </feature>
				<threshold> 5.0 </threshold>
				<split pos="left">
					<feature> 127 </feature>
					<threshold> 13.9765625 </threshold>
					<split pos="left">
						<output> 0.29560283 </output>
					</split>
					<split pos="right">
						<feature> 107 </feature>
						<threshold> 17.860775 </threshold>
						<split pos="left">
							<feature> 14 </feature>
							<threshold> 2.0 </threshold>
							<split pos="left">
								<output> 1.1240952 </output>
							</split>
							<split pos="right">
								<feature> 110 </feature>
								<threshold> 20.158375 </threshold>
								<split pos="left">
									<output> -0.034769084 </output>
								</split>
								<split pos="right">
									<output> 0.07322865 </output>
								</split>
							</split>
						</split>
						<split pos="right">
							<output> 0.16195838 </output>
						</split>
					</split>
				</split>
				<split pos="right">
					<feature> 127 </feature>
					<threshold> 13.9765625 </threshold>
					<split pos="left">
						<output> -0.34806323 </output>
					</split>
					<split pos="right">
						<feature> 130 </feature>
						<threshold> 29750.234 </threshold>
						<split pos="left">
							<feature> 135 </feature>
							<threshold> 9175.684 </threshold>
							<split pos="left">
								<output> 0.017268257 </output>
							</split>
							<split pos="right">
								<output> -4.693105 </output>
							</split>
						</split>
						<split pos="right">
							<output> -0.09494328 </output>
						</split>
					</split>
				</split>
			</split>
			<split pos="right">
				<output> -0.16195004 </output>
			</split>
		</split>
	</tree>
	<tree id="37" weight="1.0">
		<split>
			<feature> 59 </feature>
			<threshold> 0.272727 </threshold>
			<split pos="left">
				<feature> 130 </feature>
				<threshold> 2911.6602 </threshold>
				<split pos="left">
					<output> -0.04249234 </output>
				</split>
				<split pos="right">
					<feature> 14 </feature>
					<threshold> 2.0 </threshold>
					<split pos="left">
						<output> -2.1737673 </output>
					</split>
					<split pos="right">
						<feature> 50 </feature>
						<threshold> 0.3829601 </threshold>
						<split pos="left">
							<feature> 15 </feature>
							<threshold> 478.4375 </threshold>
							<split pos="left">
								<feature> 129 </feature>
								<threshold> 88.0 </threshold>
								<split pos="left">
									<feature> 134 </feature>
									<threshold> 105817.38 </threshold>
									<split pos="left">
										<feature> 84 </feature>
										<threshold> 8.571306 </threshold>
										<split pos="left">
											<feature> 59 </feature>
											<threshold> 0.222222 </threshold>
											<split pos="left">
												<output> 0.039530553 </output>
											</split>
											<split pos="right">
												<output> -0.29290378 </output>
											</split>
										</split>
										<split pos="right">
											<output> 0.13141304 </output>
										</split>
									</split>
									<split pos="right">
										<output> 0.47264206 </output>
									</split>
								</split>
								<split pos="right">
									<output> 1.0449389 </output>
								</split>
							</split>
							<split pos="right">
								<output> -0.03288462 </output>
							</split>
						</split>
						<split pos="right">
							<output> 0.46805653 </output>
						</split>
					</split>
				</split>
			</split>
			<split pos="right">
				<output> 0.28777307 </output>
			</split>
		</split>
	</tree>
	<tree id="38" weight="1.0">
		<split>
			<feature> 46 </feature>
			<threshold> 0.5234375 </threshold>
			<split pos="left">
				<feature> 69 </feature>
				<threshold> 0.037265655 </threshold>
				<split pos="left">
					<feature> 129 </feature>
					<threshold> 11.0 </threshold>
					<split pos="left">
						<feature> 64 </feature>
						<threshold> 0.1326976 </threshold>
						<split pos="left">
							<feature> 134 </feature>
							<threshold> 158726.08 </threshold>
							<split pos="left">
								<feature> 50 </feature>
								<threshold> 0.5845179 </threshold>
								<split pos="left">
									<feature> 50 </feature>
									<threshold> 0.53748786 </threshold>
									<split pos="left">
										<feature> 69 </feature>
										<threshold> 0.015468745 </threshold>
										<split pos="left">
											<feature> 132 </feature>
											<threshold> 1.0 </threshold>
											<split pos="left">
												<output> -0.091443665 </output>
											</split>
											<split pos="right">
												<output> 0.018132785 </output>
											</split>
										</split>
										<split pos="right">
											<output> 0.229037 </output>
										</split>
									</split>
									<split pos="right">
										<output> -1.8764868 </output>
									</split>
								</split>
								<split pos="right">
									<output> 1.0409745 </output>
								</split>
							</split>
							<split pos="right">
								<output> 0.72465485 </output>
							</split>
						</split>
						<split pos="right">
							<output> -0.08477496 </output>
						</split>
					</split>
					<split pos="right">
						<output> 0.05942796 </output>
					</split>
				</split>
				<split pos="right">
					<output> -1.7381757 </output>
				</split>
			</split>
			<split pos="right">
				<output> -0.4496388 </output>
			</split>
		</split>
	</tree>
	<tree id="39" weight="1.0">
		<split>
			<feature> 134 </feature>
			<threshold> 317452.16 </threshold>
			<split pos="left">
				<feature> 54 </feature>
				<threshold> 0.24 </threshold>
				<split pos="left">
					<feature> 129 </feature>
					<threshold> 164.0 </threshold>
					<split pos="left">
						<feature> 130 </feature>
						<threshold> 65279.395 </threshold>
						<split pos="left">
							<feature> 108 </feature>
							<threshold> 13.33966 </threshold>
							<split pos="left">
								<feature> 49 </feature>
								<threshold> 0.146341 </threshold>
								<split pos="left">
									<output> 0.0030310503 </output>
								</split>
								<split pos="right">
									<output> 0.15151416 </output>
								</split>
							</split>
							<split pos="right">
								<feature> 18 </feature>
								<threshold> 7.0371227 </threshold>
								<split pos="left">
									<output> -1.4726136 </output>
								</split>
								<split pos="right">
									<feature> 132 </feature>
									<threshold> 2.0 </threshold>
									<split pos="left">
										<output> 0.062943034 </output>
									</split>
									<split pos="right">
										<feature> 107 </feature>
										<threshold> 16.708466 </threshold>
										<split pos="left">
											<output> -0.035359066 </output>
										</split>
										<split pos="right">
											<output> -0.17984194 </output>
										</split>
									</split>
								</split>
							</split>
						</split>
						<split pos="right">
							<output> -0.10860454 </output>
						</split>
					</split>
					<split pos="right">
						<output> -5.1486073 </output>
					</split>
				</split>
				<split pos="right">
					<output> 0.113920376 </output>
				</split>
			</split>
			<split pos="right">
				<output> -1.391135 </output>
			</split>
		</split>
	</tree>
	<tree id="40" weight="1.0">
		<split>
			<feature> 69 </feature>
			<threshold> 0.005976564 </threshold>
			<split pos="left">
				<feature> 58 </feature>
				<threshold> 0.3671875 </threshold>
				<split pos="left">
					<feature> 50 </feature>
					<threshold> 0.53748786 </threshold>
					<split pos="left">
						<feature> 134 </feature>
						<threshold> 476178.22 </threshold>
						<split pos="left">
							<feature> 87 </feature>
							<threshold> 78.432205 </threshold>
							<split pos="left">
								<feature> 27 </feature>
								<threshold> 11.0 </threshold>
								<split pos="left">
									<feature> 27 </feature>
									<threshold> 7.0 </threshold>
									<split pos="left">
										<feature> 77 </feature>
										<threshold> 42.01726 </threshold>
										<split pos="left">
											<feature> 70 </feature>
											<threshold> 0.001953125 </threshold>
											<split pos="left">
												<output> 0.0015145547 </output>
											</split>
											<split pos="right">
												<output> -0.15916985 </output>
											</split>
										</split>
										<split pos="right">
											<output> 0.18836127 </output>
										</split>
									</split>
									<split pos="right">
										<output> -0.45030478 </output>
									</split>
								</split>
								<split pos="right">
									<output> -4.3623214 </output>
								</split>
							</split>
							<split pos="right">
								<output> 0.56269675 </output>
							</split>
						</split>
						<split pos="right">
							<output> 1.0465325 </output>
						</split>
					</split>
					<split pos="right">
						<output> 0.61351967 </output>
					</split>
				</split>
				<split pos="right">
					<output> 0.10203763 </output>
				</split>
			</split>
			<split pos="right">
				<output> -0.08839363 </output>
			</split>
		</split>
	</tree>
	<tree id="41" weight="1.0">
		<split>
			<feature> 37 </feature>
			<threshold> 4.5 </threshold>
			<split pos="left">
				<feature> 72 </feature>
				<threshold> 53.62187 </threshold>
				<split pos="left">
					<feature> 130 </feature>
					<threshold> 65023.79 </threshold>
					<split pos="left">
						<feature> 54 </feature>
						<threshold> 0.307692 </threshold>
						<split pos="left">
							<feature> 134 </feature>
							<threshold> 52908.69 </threshold>
							<split pos="left">
								<feature> 65 </feature>
								<threshold> 0.0739626 </threshold>
								<split pos="left">
									<feature> 87 </feature>
									<threshold> 22.409203 </threshold>
									<split pos="left">
										<feature> 24 </feature>
										<threshold> 4.0 </threshold>
										<split pos="left">
											<feature> 49 </feature>
											<threshold> 0.6 </threshold>
											<split pos="left">
												<output> -0.012388922 </output>
											</split>
											<split pos="right">
												<output> 1.047736 </output>
											</split>
										</split>
										<split pos="right">
											<output> 0.24261008 </output>
										</split>
									</split>
									<split pos="right">
										<output> -0.16280067 </output>
									</split>
								</split>
								<split pos="right">
									<output> 0.10273092 </output>
								</split>
							</split>
							<split pos="right">
								<output> -0.6534211 </output>
							</split>
						</split>
						<split pos="right">
							<output> -0.39932433 </output>
						</split>
					</split>
					<split pos="right">
						<output> 0.07716944 </output>
					</split>
				</split>
				<split pos="right">
					<output> 0.15517548 </output>
				</split>
			</split>
			<split pos="right">
				<output> -0.15900235 </output>
			</split>
		</split>
	</tree>
	<tree id="42" weight="1.0">
		<split>
			<feature> 77 </feature>
			<threshold> 30.812656 </threshold>
			<split pos="left">
				<feature> 49 </feature>
				<threshold> 0.692308 </threshold>
				<split pos="left">
					<feature> 50 </feature>
					<threshold> 0.5307693 </threshold>
					<split pos="left">
						<feature> 22 </feature>
						<threshold> 10.0 </threshold>
						<split pos="left">
							<feature> 92 </feature>
							<threshold> 2903.3835 </threshold>
							<split pos="left">
								<feature> 82 </feature>
								<threshold> 66.26739 </threshold>
								<split pos="left">
									<feature> 72 </feature>
									<threshold> 71.49583 </threshold>
									<split pos="left">
										<feature> 59 </feature>
										<threshold> 0.285714 </threshold>
										<split pos="left">
											<feature> 37 </feature>
											<threshold> 3.5 </threshold>
											<split pos="left">
												<output> -0.0021235996 </output>
											</split>
											<split pos="right">
												<output> 0.28509566 </output>
											</split>
										</split>
										<split pos="right">
											<output> 0.2378276 </output>
										</split>
									</split>
									<split pos="right">
										<output> 0.27994674 </output>
									</split>
								</split>
								<split pos="right">
									<output> -1.0878574 </output>
								</split>
							</split>
							<split pos="right">
								<output> 1.0635266 </output>
							</split>
						</split>
						<split pos="right">
							<output> -0.2773357 </output>
						</split>
					</split>
					<split pos="right">
						<output> -0.52275985 </output>
					</split>
				</split>
				<split pos="right">
					<output> -4.248418 </output>
				</split>
			</split>
			<split pos="right">
				<output> 0.15736832 </output>
			</split>
		</split>
	</tree>
	<tree id="43" weight="1.0">
		<split>
			<feature> 27 </feature>
			<threshold> 3.0 </threshold>
			<split pos="left">
				<feature> 82 </feature>
				<threshold> 60.243076 </threshold>
				<split pos="left">
					<feature> 82 </feature>
					<threshold> 45.18231 </threshold>
					<split pos="left">
						<feature> 37 </feature>
						<threshold> 4.333333 </threshold>
						<split pos="left">
							<feature> 72 </feature>
							<threshold> 71.49583 </threshold>
							<split pos="left">
								<feature> 53 </feature>
								<threshold> 0.0703125 </threshold>
								<split pos="left">
									<feature> 108 </feature>
									<threshold> 21.12113 </threshold>
									<split pos="left">
										<output> -0.008404771 </output>
									</split>
									<split pos="right">
										<output> -0.13032538 </output>
									</split>
								</split>
								<split pos="right">
									<feature> 127 </feature>
									<threshold> 8.988281 </threshold>
									<split pos="left">
										<output> 0.9193736 </output>
									</split>
									<split pos="right">
										<feature> 135 </feature>
										<threshold> 9175.684 </threshold>
										<split pos="left">
											<output> 0.022010595 </output>
										</split>
										<split pos="right">
											<output> 0.26698452 </output>
										</split>
									</split>
								</split>
							</split>
							<split pos="right">
								<output> 0.28472525 </output>
							</split>
						</split>
						<split pos="right">
							<output> -1.329113 </output>
						</split>
					</split>
					<split pos="right">
						<output> -0.24155803 </output>
					</split>
				</split>
				<split pos="right">
					<output> 0.52962875 </output>
				</split>
			</split>
			<split pos="right">
				<output> -0.16797085 </output>
			</split>
		</split>
	</tree>
	<tree id="44" weight="1.0">
		<split>
			<feature> 77 </feature>
			<threshold> 33.613808 </threshold>
			<split pos="left">
				<feature> 92 </feature>
				<threshold> 15097.595 </threshold>
				<split pos="left">
					<feature> 72 </feature>
					<threshold> 53.62187 </threshold>
					<split pos="left">
						<feature> 13 </feature>
						<threshold> 23.714844 </threshold>
						<split pos="left">
							<feature> 22 </feature>
							<threshold> 1.0 </threshold>
							<split pos="left">
								<feature> 107 </feature>
								<threshold> 16.13231 </threshold>
								<split pos="left">
									<feature> 76 </feature>
									<threshold> 367.7557 </threshold>
									<split pos="left">
										<feature> 38 </feature>
										<threshold> 2.4609375 </threshold>
										<split pos="left">
											<feature> 23 </feature>
											<threshold> 6.0 </threshold>
											<split pos="left">
												<output> -0.0010983207 </output>
											</split>
											<split pos="right">
												<output> -0.29892007 </output>
											</split>
										</split>
										<split pos="right">
											<output> 0.13761099 </output>
										</split>
									</split>
									<split pos="right">
										<output> -0.3904484 </output>
									</split>
								</split>
								<split pos="right">
									<output> -0.15962651 </output>
								</split>
							</split>
							<split pos="right">
								<output> 0.048489522 </output>
							</split>
						</split>
						<split pos="right">
							<output> -0.22907978 </output>
						</split>
					</split>
					<split pos="right">
						<output> -0.111161344 </output>
					</split>
				</split>
				<split pos="right">
					<output> -5.1345563 </output>
				</split>
			</split>
			<split pos="right">
				<output> 0.18325348 </output>
			</split>
		</split>
	</tree>
	<tree id="45" weight="1.0">
		<split>
			<feature> 49 </feature>
			<threshold> 0.4375 </threshold>
			<split pos="left">
				<feature> 2 </feature>
				<threshold> 3.0 </threshold>
				<split pos="left">
					<feature> 87 </feature>
					<threshold> 159.66548 </threshold>
					<split pos="left">
						<feature> 77 </feature>
						<threshold> 148.46089 </threshold>
						<split pos="left">
							<feature> 79 </feature>
							<threshold> 61.61954 </threshold>
							<split pos="left">
								<feature> 50 </feature>
								<threshold> 0.62482935 </threshold>
								<split pos="left">
									<feature> 129 </feature>
									<threshold> 88.0 </threshold>
									<split pos="left">
										<feature> 109 </feature>
										<threshold> 29.668514 </threshold>
										<split pos="left">
											<feature> 78 </feature>
											<threshold> 13.988582 </threshold>
											<split pos="left">
												<output> 0.00414638 </output>
											</split>
											<split pos="right">
												<output> -0.084089 </output>
											</split>
										</split>
										<split pos="right">
											<output> 0.2945395 </output>
										</split>
									</split>
									<split pos="right">
										<output> -0.36309105 </output>
									</split>
								</split>
								<split pos="right">
									<output> 1.0205594 </output>
								</split>
							</split>
							<split pos="right">
								<output> 1.5412674 </output>
							</split>
						</split>
						<split pos="right">
							<output> -5.158201 </output>
						</split>
					</split>
					<split pos="right">
						<output> 0.8878507 </output>
					</split>
				</split>
				<split pos="right">
					<output> 0.21544725 </output>
				</split>
			</split>
			<split pos="right">
				<output> -0.14245923 </output>
			</split>
		</split>
	</tree>
	<tree id="46" weight="1.0">
		<split>
			<feature> 33 </feature>
			<threshold> 4.0 </threshold>
			<split pos="left">
				<feature> 23 </feature>
				<threshold> 8.0 </threshold>
				<split pos="left">
					<feature> 36 </feature>
					<threshold> 26.132812 </threshold>
					<split pos="left">
						<feature> 81 </feature>
						<threshold> 811.35913 </threshold>
						<split pos="left">
							<feature> 102 </feature>
							<threshold> 0.6953125 </threshold>
							<split pos="left">
								<feature> 30 </feature>
								<threshold> 30.839844 </threshold>
								<split pos="left">
									<feature> 49 </feature>
									<threshold> 0.388889 </threshold>
									<split pos="left">
										<feature> 7 </feature>
										<threshold> 0.571429 </threshold>
										<split pos="left">
											<feature> 69 </feature>
											<threshold> 0.024960948 </threshold>
											<split pos="left">
												<output> -0.0037210418 </output>
											</split>
											<split pos="right">
												<output> -0.7946596 </output>
											</split>
										</split>
										<split pos="right">
											<output> 0.3515345 </output>
										</split>
									</split>
									<split pos="right">
										<output> 0.16988163 </output>
									</split>
								</split>
								<split pos="right">
									<output> -6.3315845 </output>
								</split>
							</split>
							<split pos="right">
								<output> -0.060571313 </output>
							</split>
						</split>
						<split pos="right">
							<output> 1.3414687 </output>
						</split>
					</split>
					<split pos="right">
						<output> 0.04981068 </output>
					</split>
				</split>
				<split pos="right">
					<output> -0.32094267 </output>
				</split>
			</split>
			<split pos="right">
				<output> 0.3642354 </output>
			</split>
		</split>
	</tree>
	<tree id="47" weight="1.0">
		<split>
			<feature> 69 </feature>
			<threshold> 0.024609385 </threshold>
			<split pos="left">
				<feature> 49 </feature>
				<threshold> 0.363636 </threshold>
				<split pos="left">
					<feature> 79 </feature>
					<threshold> 61.61954 </threshold>
					<split pos="left">
						<feature> 109 </feature>
						<threshold> 38.22585 </threshold>
						<split pos="left">
							<feature> 3 </feature>
							<threshold> 4.0 </threshold>
							<split pos="left">
								<feature> 23 </feature>
								<threshold> 4.0 </threshold>
								<split pos="left">
									<feature> 22 </feature>
									<threshold> 7.0 </threshold>
									<split pos="left">
										<feature> 126 </feature>
										<threshold> 1.0 </threshold>
										<split pos="left">
											<output> 0.04877453 </output>
										</split>
										<split pos="right">
											<feature> 14 </feature>
											<threshold> 4.0 </threshold>
											<split pos="left">
												<output> -0.07815743 </output>
											</split>
											<split pos="right">
												<output> -0.0023756055 </output>
											</split>
										</split>
									</split>
									<split pos="right">
										<output> 0.16306603 </output>
									</split>
								</split>
								<split pos="right">
									<output> -0.08366024 </output>
								</split>
							</split>
							<split pos="right">
								<output> 0.33889475 </output>
							</split>
						</split>
						<split pos="right">
							<output> -3.343688 </output>
						</split>
					</split>
					<split pos="right">
						<output> 1.1286929 </output>
					</split>
				</split>
				<split pos="right">
					<output> -0.086691245 </output>
				</split>
			</split>
			<split pos="right">
				<output> 0.600031 </output>
			</split>
		</split>
	</tree>
	<tree id="48" weight="1.0">
		<split>
			<feature> 22 </feature>
			<threshold> 6.0 </threshold>
			<split pos="left">
				<feature> 69 </feature>
				<threshold> 0.024609385 </threshold>
				<split pos="left">
					<feature> 70 </feature>
					<threshold> 0.029541016 </threshold>
					<split pos="left">
						<feature> 70 </feature>
						<threshold> 0.008544922 </threshold>
						<split pos="left">
							<feature> 129 </feature>
							<threshold> 88.0 </threshold>
							<split pos="left">
								<feature> 129 </feature>
								<threshold> 18.0 </threshold>
								<split pos="left">
									<feature> 57 </feature>
									<threshold> 0.5 </threshold>
									<split pos="left">
										<feature> 72 </feature>
										<threshold> 44.68489 </threshold>
										<split pos="left">
											<feature> 2 </feature>
											<threshold> 5.0 </threshold>
											<split pos="left">
												<output> 0.005559741 </output>
											</split>
											<split pos="right">
												<output> 1.3583367 </output>
											</split>
										</split>
										<split pos="right">
											<output> 0.20047107 </output>
										</split>
									</split>
									<split pos="right">
										<output> 0.15397142 </output>
									</split>
								</split>
								<split pos="right">
									<output> -0.04899115 </output>
								</split>
							</split>
							<split pos="right">
								<output> 0.38349718 </output>
							</split>
						</split>
						<split pos="right">
							<output> -0.30616727 </output>
						</split>
					</split>
					<split pos="right">
						<output> 0.7942304 </output>
					</split>
				</split>
				<split pos="right">
					<output> -0.4731551 </output>
				</split>
			</split>
			<split pos="right">
				<output> -0.16094756 </output>
			</split>
		</split>
	</tree>
	<tree id="49" weight="1.0">
		<split>
			<feature> 70 </feature>
			<threshold> 0.03100586 </threshold>
			<split pos="left">
				<feature> 70 </feature>
				<threshold> 0.029541016 </threshold>
				<split pos="left">
					<feature> 131 </feature>
					<threshold> 13056.602 </threshold>
					<split pos="left">
						<output> -0.041852172 </output>
					</split>
					<split pos="right">
						<feature> 60 </feature>
						<threshold> 0.28401655 </threshold>
						<split pos="left">
							<feature> 108 </feature>
							<threshold> 25.567686 </threshold>
							<split pos="left">
								<feature> 74 </feature>
								<threshold> 35.158054 </threshold>
								<split pos="left">
									<feature> 132 </feature>
									<threshold> 35.0 </threshold>
									<split pos="left">
										<feature> 69 </feature>
										<threshold> 0.024960948 </threshold>
										<split pos="left">
											<feature> 127 </feature>
											<threshold> 8.988281 </threshold>
											<split pos="left">
												<output> -0.8440087 </output>
											</split>
											<split pos="right">
												<output> -0.0057922965 </output>
											</split>
										</split>
										<split pos="right">
											<output> 0.660827 </output>
										</split>
									</split>
									<split pos="right">
										<output> 0.10106348 </output>
									</split>
								</split>
								<split pos="right">
									<output> -0.39688292 </output>
								</split>
							</split>
							<split pos="right">
								<output> 0.082164384 </output>
							</split>
						</split>
						<split pos="right">
							<output> 0.6789702 </output>
						</split>
					</split>
				</split>
				<split pos="right">
					<output> 0.84676385 </output>
				</split>
			</split>
			<split pos="right">
				<output> -1.6886053 </output>
			</split>
		</split>
	</tree>
	<tree id="50" weight="1.0">
		<split>
			<feature> 60 </feature>
			<threshold> 0.28697506 </threshold>
			<split pos="left">
				<feature> 69 </feature>
				<threshold> 0.024960948 </threshold>
				<split pos="left">
					<feature> 53 </feature>
					<threshold> 0.30859375 </threshold>
					<split pos="left">
						<feature> 49 </feature>
						<threshold> 0.466667 </threshold>
						<split pos="left">
							<feature> 135 </feature>
							<threshold> 36702.734 </threshold>
							<split pos="left">
								<feature> 4 </feature>
								<threshold> 4.0 </threshold>
								<split pos="left">
									<feature> 134 </feature>
									<threshold> 52908.69 </threshold>
									<split pos="left">
										<feature> 63 </feature>
										<threshold> 0.30078125 </threshold>
										<split pos="left">
											<feature> 134 </feature>
											<threshold> 0.0 </threshold>
											<split pos="left">
												<output> 0.011607848 </output>
											</split>
											<split pos="right">
												<output> -0.026978383 </output>
											</split>
										</split>
										<split pos="right">
											<output> 0.17528059 </output>
										</split>
									</split>
									<split pos="right">
										<output> 0.3249365 </output>
									</split>
								</split>
								<split pos="right">
									<output> -0.55474925 </output>
								</split>
							</split>
							<split pos="right">
								<output> -0.41373774 </output>
							</split>
						</split>
						<split pos="right">
							<output> 0.25686818 </output>
						</split>
					</split>
					<split pos="right">
						<output> -0.059459474 </output>
					</split>
				</split>
				<split pos="right">
					<output> -0.6575902 </output>
				</split>
			</split>
			<split pos="right">
				<output> -0.4843606 </output>
			</split>
		</split>
	</tree>
	<tree id="51" weight="1.0">
		<split>
			<feature> 69 </feature>
			<threshold> 0.024609385 </threshold>
			<split pos="left">
				<feature> 135 </feature>
				<threshold> 64229.785 </threshold>
				<split pos="left">
					<feature> 134 </feature>
					<threshold> 105817.38 </threshold>
					<split pos="left">
						<feature> 14 </feature>
						<threshold> 3.0 </threshold>
						<split pos="left">
							<output> 0.08787703 </output>
						</split>
						<split pos="right">
							<feature> 27 </feature>
							<threshold> 22.0 </threshold>
							<split pos="left">
								<feature> 87 </feature>
								<threshold> 137.2563 </threshold>
								<split pos="left">
									<feature> 136 </feature>
									<threshold> 5.8007795E8 </threshold>
									<split pos="left">
										<feature> 74 </feature>
										<threshold> 30.527288 </threshold>
										<split pos="left">
											<feature> 22 </feature>
											<threshold> 6.0 </threshold>
											<split pos="left">
												<output> -0.0073019676 </output>
											</split>
											<split pos="right">
												<output> 0.09784424 </output>
											</split>
										</split>
										<split pos="right">
											<output> 0.12856543 </output>
										</split>
									</split>
									<split pos="right">
										<output> 1.3755546 </output>
									</split>
								</split>
								<split pos="right">
									<output> 0.9420582 </output>
								</split>
							</split>
							<split pos="right">
								<output> -1.9694729 </output>
							</split>
						</split>
					</split>
					<split pos="right">
						<output> -0.3969662 </output>
					</split>
				</split>
				<split pos="right">
					<output> 0.54188645 </output>
				</split>
			</split>
			<split pos="right">
				<output> 0.5659701 </output>
			</split>
		</split>
	</tree>
	<tree id="52" weight="1.0">
		<split>
			<feature> 136 </feature>
			<threshold> 8.0156378E8 </threshold>
			<split pos="left">
				<feature> 136 </feature>
				<threshold> 6.1171878E8 </threshold>
				<split pos="left">
					<feature> 134 </feature>
					<threshold> 158726.08 </threshold>
					<split pos="left">
						<feature> 136 </feature>
						<threshold> 5.8007795E8 </threshold>
						<split pos="left">
							<feature> 59 </feature>
							<threshold> 0.3 </threshold>
							<split pos="left">
								<feature> 72 </feature>
								<threshold> 44.68489 </threshold>
								<split pos="left">
									<feature> 2 </feature>
									<threshold> 5.0 </threshold>
									<split pos="left">
										<feature> 132 </feature>
										<threshold> 38.0 </threshold>
										<split pos="left">
											<feature> 107 </feature>
											<threshold> 28.807714 </threshold>
											<split pos="left">
												<output> 0.009952376 </output>
											</split>
											<split pos="right">
												<output> 0.2887251 </output>
											</split>
										</split>
										<split pos="right">
											<output> -0.05433079 </output>
										</split>
									</split>
									<split pos="right">
										<output> 1.1006649 </output>
									</split>
								</split>
								<split pos="right">
									<output> -0.07415895 </output>
								</split>
							</split>
							<split pos="right">
								<output> -0.21294393 </output>
							</split>
						</split>
						<split pos="right">
							<output> 0.9693632 </output>
						</split>
					</split>
					<split pos="right">
						<output> 0.49867395 </output>
					</split>
				</split>
				<split pos="right">
					<output> -3.7279918 </output>
				</split>
			</split>
			<split pos="right">
				<output> 1.13557 </output>
			</split>
		</split>
	</tree>
	<tree id="53" weight="1.0">
		<split>
			<feature> 136 </feature>
			<threshold> 8.9297062E8 </threshold>
			<split pos="left">
				<feature> 136 </feature>
				<threshold> 8.0156378E8 </threshold>
				<split pos="left">
					<feature> 129 </feature>
					<threshold> 91.0 </threshold>
					<split pos="left">
						<feature> 68 </feature>
						<threshold> 0.24023438 </threshold>
						<split pos="left">
							<feature> 68 </feature>
							<threshold> 0.22265625 </threshold>
							<split pos="left">
								<feature> 32 </feature>
								<threshold> 29.0 </threshold>
								<split pos="left">
									<feature> 55 </feature>
									<threshold> 0.27514103 </threshold>
									<split pos="left">
										<feature> 65 </feature>
										<threshold> 0.3017676 </threshold>
										<split pos="left">
											<feature> 60 </feature>
											<threshold> 0.3609377 </threshold>
											<split pos="left">
												<output> 2.681175E-5 </output>
											</split>
											<split pos="right">
												<output> 1.0655943 </output>
											</split>
										</split>
										<split pos="right">
											<output> -2.6495476 </output>
										</split>
									</split>
									<split pos="right">
										<output> 0.506984 </output>
									</split>
								</split>
								<split pos="right">
									<output> 1.545054 </output>
								</split>
							</split>
							<split pos="right">
								<output> 13.852767 </output>
							</split>
						</split>
						<split pos="right">
							<output> -0.30171394 </output>
						</split>
					</split>
					<split pos="right">
						<output> -0.53507084 </output>
					</split>
				</split>
				<split pos="right">
					<output> 0.9035911 </output>
				</split>
			</split>
			<split pos="right">
				<output> -6.9489336 </output>
			</split>
		</split>
	</tree>
	<tree id="54" weight="1.0">
		<split>
			<feature> 65 </feature>
			<threshold> 0.24851447 </threshold>
			<split pos="left">
				<feature> 65 </feature>
				<threshold> 0.24259746 </threshold>
				<split pos="left">
					<feature> 60 </feature>
					<threshold> 0.34614518 </threshold>
					<split pos="left">
						<feature> 46 </feature>
						<threshold> 0.328125 </threshold>
						<split pos="left">
							<feature> 46 </feature>
							<threshold> 0.2578125 </threshold>
							<split pos="left">
								<feature> 50 </feature>
								<threshold> 0.3829601 </threshold>
								<split pos="left">
									<feature> 50 </feature>
									<threshold> 0.3560857 </threshold>
									<split pos="left">
										<feature> 134 </feature>
										<threshold> 52908.69 </threshold>
										<split pos="left">
											<feature> 115 </feature>
											<threshold> -45.05838 </threshold>
											<split pos="left">
												<output> -0.4225424 </output>
											</split>
											<split pos="right">
												<output> 0.0036366708 </output>
											</split>
										</split>
										<split pos="right">
											<output> -0.21670999 </output>
										</split>
									</split>
									<split pos="right">
										<output> -1.2966489 </output>
									</split>
								</split>
								<split pos="right">
									<output> 0.37577796 </output>
								</split>
							</split>
							<split pos="right">
								<output> -0.28698024 </output>
							</split>
						</split>
						<split pos="right">
							<output> 0.20772098 </output>
						</split>
					</split>
					<split pos="right">
						<output> -1.2742127 </output>
					</split>
				</split>
				<split pos="right">
					<output> 1.041562 </output>
				</split>
			</split>
			<split pos="right">
				<output> -0.25912055 </output>
			</split>
		</split>
	</tree>
	<tree id="55" weight="1.0">
		<split>
			<feature> 70 </feature>
			<threshold> 0.02734375 </threshold>
			<split pos="left">
				<feature> 46 </feature>
				<threshold> 0.3515625 </threshold>
				<split pos="left">
					<feature> 50 </feature>
					<threshold> 0.54420644 </threshold>
					<split pos="left">
						<feature> 50 </feature>
						<threshold> 0.41655314 </threshold>
						<split pos="left">
							<feature> 50 </feature>
							<threshold> 0.40983453 </threshold>
							<split pos="left">
								<feature> 50 </feature>
								<threshold> 0.3829601 </threshold>
								<split pos="left">
